digraph Tree {
node [shape=box] ;
0 [label="acc_phone_z_temp_mean_ws_4 <= 9.257\ngini = 0.406\nsamples = 699\nvalue = [198, 501]\nclass = labelTable"] ;
1 [label="pca_2_temp_std_ws_4 <= 0.0\ngini = 0.02\nsamples = 200\nvalue = [198, 2]\nclass = labelSit"] ;
0 -> 1 [labeldistance=2.5, labelangle=45, headlabel="True"] ;
2 [label="gini = 0.0\nsamples = 2\nvalue = [0, 2]\nclass = labelTable"] ;
1 -> 2 ;
3 [label="gini = 0.0\nsamples = 198\nvalue = [198, 0]\nclass = labelSit"] ;
1 -> 3 ;
4 [label="gini = 0.0\nsamples = 499\nvalue = [0, 499]\nclass = labelTable"] ;
0 -> 4 [labeldistance=2.5, labelangle=-45, headlabel="False"] ;
}